Language model created by QuickLM on Thu Apr  5 04:45:26 EDT 2018
Copyright (c) 1996-2010 Carnegie Mellon University and Alexander I. Rudnicky

The model is in standard ARPA format, designed by Doug Paul while he was at MITRE.

The code that was used to produce this language model is available in Open Source.
Please visit http://www.speech.cs.cmu.edu/tools/ for more information

The (fixed) discount mass is 0.5. The backoffs are computed using the ratio method.
This model based on a corpus of 23 sentences and 25 words

\data\
ngram 1=25
ngram 2=46
ngram 3=23

\1-grams:
-2.1399 0 -0.2218
-2.1399 1 -0.2218
-2.1399 10 -0.2218
-2.1399 2 -0.2218
-2.1399 3 -0.2218
-2.1399 4 -0.2218
-2.1399 5 -0.2218
-2.1399 6 -0.2218
-2.1399 7 -0.2218
-2.1399 8 -0.2218
-2.1399 9 -0.2218
-0.7782 </s> -0.3010
-0.7782 <s> -0.2218
-2.1399 EIGHT -0.2218
-2.1399 FIVE -0.2218
-2.1399 FOUR -0.2218
-2.1399 NINE -0.2218
-2.1399 OH -0.2218
-2.1399 ONE -0.2218
-2.1399 SEVEN -0.2218
-2.1399 SIX -0.2218
-2.1399 TEN -0.2218
-2.1399 THREE -0.2218
-2.1399 TWO -0.2218
-2.1399 ZERO -0.2218

\2-grams:
-0.3010 0 </s> -0.3010
-0.3010 1 </s> -0.3010
-0.3010 10 </s> -0.3010
-0.3010 2 </s> -0.3010
-0.3010 3 </s> -0.3010
-0.3010 4 </s> -0.3010
-0.3010 5 </s> -0.3010
-0.3010 6 </s> -0.3010
-0.3010 7 </s> -0.3010
-0.3010 8 </s> -0.3010
-0.3010 9 </s> -0.3010
-1.6628 <s> 0 0.0000
-1.6628 <s> 1 0.0000
-1.6628 <s> 10 0.0000
-1.6628 <s> 2 0.0000
-1.6628 <s> 3 0.0000
-1.6628 <s> 4 0.0000
-1.6628 <s> 5 0.0000
-1.6628 <s> 6 0.0000
-1.6628 <s> 7 0.0000
-1.6628 <s> 8 0.0000
-1.6628 <s> 9 0.0000
-1.6628 <s> EIGHT 0.0000
-1.6628 <s> FIVE 0.0000
-1.6628 <s> FOUR 0.0000
-1.6628 <s> NINE 0.0000
-1.6628 <s> OH 0.0000
-1.6628 <s> ONE 0.0000
-1.6628 <s> SEVEN 0.0000
-1.6628 <s> SIX 0.0000
-1.6628 <s> TEN 0.0000
-1.6628 <s> THREE 0.0000
-1.6628 <s> TWO 0.0000
-1.6628 <s> ZERO 0.0000
-0.3010 EIGHT </s> -0.3010
-0.3010 FIVE </s> -0.3010
-0.3010 FOUR </s> -0.3010
-0.3010 NINE </s> -0.3010
-0.3010 OH </s> -0.3010
-0.3010 ONE </s> -0.3010
-0.3010 SEVEN </s> -0.3010
-0.3010 SIX </s> -0.3010
-0.3010 TEN </s> -0.3010
-0.3010 THREE </s> -0.3010
-0.3010 TWO </s> -0.3010
-0.3010 ZERO </s> -0.3010

\3-grams:
-0.3010 <s> 0 </s>
-0.3010 <s> 1 </s>
-0.3010 <s> 10 </s>
-0.3010 <s> 2 </s>
-0.3010 <s> 3 </s>
-0.3010 <s> 4 </s>
-0.3010 <s> 5 </s>
-0.3010 <s> 6 </s>
-0.3010 <s> 7 </s>
-0.3010 <s> 8 </s>
-0.3010 <s> 9 </s>
-0.3010 <s> EIGHT </s>
-0.3010 <s> FIVE </s>
-0.3010 <s> FOUR </s>
-0.3010 <s> NINE </s>
-0.3010 <s> OH </s>
-0.3010 <s> ONE </s>
-0.3010 <s> SEVEN </s>
-0.3010 <s> SIX </s>
-0.3010 <s> TEN </s>
-0.3010 <s> THREE </s>
-0.3010 <s> TWO </s>
-0.3010 <s> ZERO </s>

\end\
