<?xml version="1.0"?>
<opencv_storage>
<cascade>
  <stageType>BOOST</stageType>
  <featureType>HAAR</featureType>
  <height>20</height>
  <width>20</width>
  <stageParams>
    <boostType>GAB</boostType>
    <minHitRate>9.9500000476837158e-01</minHitRate>
    <maxFalseAlarm>5.0000000000000000e-01</maxFalseAlarm>
    <weightTrimRate>9.4999999999999996e-01</weightTrimRate>
    <maxDepth>1</maxDepth>
    <maxWeakCount>100</maxWeakCount></stageParams>
  <featureParams>
    <maxCatCount>0</maxCatCount>
    <featSize>1</featSize>
    <mode>BASIC</mode></featureParams>
  <stageNum>8</stageNum>
  <stages>
    <!-- stage 0 -->
    <_>
      <maxWeakCount>2</maxWeakCount>
      <stageThreshold>-1.1393981426954269e-01</stageThreshold>
      <weakClassifiers>
        <_>
          <internalNodes>
            0 -1 15 -2.7208149433135986e-02</internalNodes>
          <leafValues>
            8.4526920318603516e-01 -9.1105461120605469e-01</leafValues></_>
        <_>
          <internalNodes>
            0 -1 9 5.0304491072893143e-02</internalNodes>
          <leafValues>
            -8.3390426635742188e-01 7.9711484909057617e-01</leafValues></_></weakClassifiers></_>
    <!-- stage 1 -->
    <_>
      <maxWeakCount>2</maxWeakCount>
      <stageThreshold>-1.0837531089782715e-01</stageThreshold>
      <weakClassifiers>
        <_>
          <internalNodes>
            0 -1 14 1.1614599078893661e-01</internalNodes>
          <leafValues>
            -8.3847981691360474e-01 8.6437028646469116e-01</leafValues></_>
        <_>
          <internalNodes>
            0 -1 12 5.3820773959159851e-02</internalNodes>
          <leafValues>
            -9.1741836071014404e-01 7.3010450601577759e-01</leafValues></_></weakClassifiers></_>
    <!-- stage 2 -->
    <_>
      <maxWeakCount>4</maxWeakCount>
      <stageThreshold>-3.8724830746650696e-01</stageThreshold>
      <weakClassifiers>
        <_>
          <internalNodes>
            0 -1 10 -2.6524189859628677e-02</internalNodes>
          <leafValues>
            7.7526938915252686e-01 -8.1358188390731812e-01</leafValues></_>
        <_>
          <internalNodes>
            0 -1 26 -1.7614748328924179e-02</internalNodes>
          <leafValues>
            6.6665560007095337e-01 -7.9587155580520630e-01</leafValues></_>
        <_>
          <internalNodes>
            0 -1 16 -1.6835875809192657e-02</internalNodes>
          <leafValues>
            5.1758861541748047e-01 -8.3481603860855103e-01</leafValues></_>
        <_>
          <internalNodes>
            0 -1 11 -7.2539135813713074e-02</internalNodes>
          <leafValues>
            7.0461654663085938e-01 -6.8069791793823242e-01</leafValues></_></weakClassifiers></_>
    <!-- stage 3 -->
    <_>
      <maxWeakCount>2</maxWeakCount>
      <stageThreshold>-1.3506104052066803e-01</stageThreshold>
      <weakClassifiers>
        <_>
          <internalNodes>
            0 -1 3 1.0368632152676582e-02</internalNodes>
          <leafValues>
            -8.2253521680831909e-01 7.4572867155075073e-01</leafValues></_>
        <_>
          <internalNodes>
            0 -1 22 2.3618649691343307e-02</internalNodes>
          <leafValues>
            -7.1926647424697876e-01 6.8747419118881226e-01</leafValues></_></weakClassifiers></_>
    <!-- stage 4 -->
    <_>
      <maxWeakCount>4</maxWeakCount>
      <stageThreshold>-4.4515526294708252e-01</stageThreshold>
      <weakClassifiers>
        <_>
          <internalNodes>
            0 -1 25 4.0186848491430283e-02</internalNodes>
          <leafValues>
            -6.8289291858673096e-01 7.0217061042785645e-01</leafValues></_>
        <_>
          <internalNodes>
            0 -1 0 1.9690334796905518e-02</internalNodes>
          <leafValues>
            -5.3106969594955444e-01 7.2300910949707031e-01</leafValues></_>
        <_>
          <internalNodes>
            0 -1 6 1.1567380279302597e-02</internalNodes>
          <leafValues>
            -9.2713993787765503e-01 4.2363470792770386e-01</leafValues></_>
        <_>
          <internalNodes>
            0 -1 7 9.8696183413267136e-03</internalNodes>
          <leafValues>
            -9.1466552019119263e-01 3.4517261385917664e-01</leafValues></_></weakClassifiers></_>
    <!-- stage 5 -->
    <_>
      <maxWeakCount>4</maxWeakCount>
      <stageThreshold>-4.1945216059684753e-01</stageThreshold>
      <weakClassifiers>
        <_>
          <internalNodes>
            0 -1 17 1.8303340300917625e-02</internalNodes>
          <leafValues>
            -8.6256778240203857e-01 6.4136004447937012e-01</leafValues></_>
        <_>
          <internalNodes>
            0 -1 19 1.3550118543207645e-02</internalNodes>
          <leafValues>
            -5.6543552875518799e-01 6.8146514892578125e-01</leafValues></_>
        <_>
          <internalNodes>
            0 -1 18 -1.1007604189217091e-02</internalNodes>
          <leafValues>
            5.1755809783935547e-01 -7.2744721174240112e-01</leafValues></_>
        <_>
          <internalNodes>
            0 -1 4 -3.8513585925102234e-02</internalNodes>
          <leafValues>
            4.9099305272102356e-01 -7.7241051197052002e-01</leafValues></_></weakClassifiers></_>
    <!-- stage 6 -->
    <_>
      <maxWeakCount>4</maxWeakCount>
      <stageThreshold>-5.4421818256378174e-01</stageThreshold>
      <weakClassifiers>
        <_>
          <internalNodes>
            0 -1 2 7.4598039500415325e-03</internalNodes>
          <leafValues>
            -7.0096462965011597e-01 6.4292591810226440e-01</leafValues></_>
        <_>
          <internalNodes>
            0 -1 23 5.4103797301650047e-03</internalNodes>
          <leafValues>
            -8.9074051380157471e-01 4.1778948903083801e-01</leafValues></_>
        <_>
          <internalNodes>
            0 -1 27 -1.7180621623992920e-02</internalNodes>
          <leafValues>
            5.2653658390045166e-01 -5.8538782596588135e-01</leafValues></_>
        <_>
          <internalNodes>
            0 -1 13 -4.3375403620302677e-03</internalNodes>
          <leafValues>
            3.8559967279434204e-01 -7.8757965564727783e-01</leafValues></_></weakClassifiers></_>
    <!-- stage 7 -->
    <_>
      <maxWeakCount>6</maxWeakCount>
      <stageThreshold>-7.6575088500976562e-01</stageThreshold>
      <weakClassifiers>
        <_>
          <internalNodes>
            0 -1 1 2.8659060597419739e-02</internalNodes>
          <leafValues>
            -7.0756304264068604e-01 6.2755346298217773e-01</leafValues></_>
        <_>
          <internalNodes>
            0 -1 21 7.0004686713218689e-02</internalNodes>
          <leafValues>
            -8.3651971817016602e-01 3.8284048438072205e-01</leafValues></_>
        <_>
          <internalNodes>
            0 -1 8 -1.2123063951730728e-01</internalNodes>
          <leafValues>
            6.5479987859725952e-01 -4.4107431173324585e-01</leafValues></_>
        <_>
          <internalNodes>
            0 -1 24 2.1790449682157487e-04</internalNodes>
          <leafValues>
            2.7717384696006775e-01 -9.5045435428619385e-01</leafValues></_>
        <_>
          <internalNodes>
            0 -1 20 5.9000700712203979e-03</internalNodes>
          <leafValues>
            -5.2378547191619873e-01 4.9250543117523193e-01</leafValues></_>
        <_>
          <internalNodes>
            0 -1 5 2.6804474182426929e-03</internalNodes>
          <leafValues>
            -7.6963335275650024e-01 3.3710020780563354e-01</leafValues></_></weakClassifiers></_></stages>
  <features>
    <_>
      <rects>
        <_>
          0 7 4 6 -1.</_>
        <_>
          2 7 2 6 2.</_></rects>
      <tilted>0</tilted></_>
    <_>
      <rects>
        <_>
          0 15 18 2 -1.</_>
        <_>
          6 15 6 2 3.</_></rects>
      <tilted>0</tilted></_>
    <_>
      <rects>
        <_>
          1 9 6 3 -1.</_>
        <_>
          3 9 2 3 3.</_></rects>
      <tilted>0</tilted></_>
    <_>
      <rects>
        <_>
          2 10 6 3 -1.</_>
        <_>
          4 10 2 3 3.</_></rects>
      <tilted>0</tilted></_>
    <_>
      <rects>
        <_>
          3 6 12 6 -1.</_>
        <_>
          3 6 6 3 2.</_>
        <_>
          9 9 6 3 2.</_></rects>
      <tilted>0</tilted></_>
    <_>
      <rects>
        <_>
          3 9 3 5 -1.</_>
        <_>
          4 9 1 5 3.</_></rects>
      <tilted>0</tilted></_>
    <_>
      <rects>
        <_>
          3 10 12 4 -1.</_>
        <_>
          3 12 12 2 2.</_></rects>
      <tilted>0</tilted></_>
    <_>
      <rects>
        <_>
          3 11 6 4 -1.</_>
        <_>
          5 11 2 4 3.</_></rects>
      <tilted>0</tilted></_>
    <_>
      <rects>
        <_>
          3 14 14 6 -1.</_>
        <_>
          3 17 14 3 2.</_></rects>
      <tilted>0</tilted></_>
    <_>
      <rects>
        <_>
          4 5 3 15 -1.</_>
        <_>
          4 10 3 5 3.</_></rects>
      <tilted>0</tilted></_>
    <_>
      <rects>
        <_>
          4 6 10 6 -1.</_>
        <_>
          4 6 5 3 2.</_>
        <_>
          9 9 5 3 2.</_></rects>
      <tilted>0</tilted></_>
    <_>
      <rects>
        <_>
          5 14 10 6 -1.</_>
        <_>
          5 17 10 3 2.</_></rects>
      <tilted>0</tilted></_>
    <_>
      <rects>
        <_>
          6 10 9 9 -1.</_>
        <_>
          6 13 9 3 3.</_></rects>
      <tilted>0</tilted></_>
    <_>
      <rects>
        <_>
          7 9 4 3 -1.</_>
        <_>
          9 9 2 3 2.</_></rects>
      <tilted>0</tilted></_>
    <_>
      <rects>
        <_>
          8 5 12 11 -1.</_>
        <_>
          12 5 4 11 3.</_></rects>
      <tilted>0</tilted></_>
    <_>
      <rects>
        <_>
          8 10 10 6 -1.</_>
        <_>
          8 10 5 3 2.</_>
        <_>
          13 13 5 3 2.</_></rects>
      <tilted>0</tilted></_>
    <_>
      <rects>
        <_>
          9 11 6 6 -1.</_>
        <_>
          9 11 3 3 2.</_>
        <_>
          12 14 3 3 2.</_></rects>
      <tilted>0</tilted></_>
    <_>
      <rects>
        <_>
          9 12 9 3 -1.</_>
        <_>
          12 12 3 3 3.</_></rects>
      <tilted>0</tilted></_>
    <_>
      <rects>
        <_>
          9 15 3 4 -1.</_>
        <_>
          9 17 3 2 2.</_></rects>
      <tilted>0</tilted></_>
    <_>
      <rects>
        <_>
          10 1 3 4 -1.</_>
        <_>
          10 3 3 2 2.</_></rects>
      <tilted>0</tilted></_>
    <_>
      <rects>
        <_>
          10 2 4 2 -1.</_>
        <_>
          10 3 4 1 2.</_></rects>
      <tilted>0</tilted></_>
    <_>
      <rects>
        <_>
          10 4 9 12 -1.</_>
        <_>
          13 4 3 12 3.</_></rects>
      <tilted>0</tilted></_>
    <_>
      <rects>
        <_>
          11 1 3 9 -1.</_>
        <_>
          11 4 3 3 3.</_></rects>
      <tilted>0</tilted></_>
    <_>
      <rects>
        <_>
          11 3 3 6 -1.</_>
        <_>
          11 5 3 2 3.</_></rects>
      <tilted>0</tilted></_>
    <_>
      <rects>
        <_>
          12 14 2 1 -1.</_>
        <_>
          13 14 1 1 2.</_></rects>
      <tilted>0</tilted></_>
    <_>
      <rects>
        <_>
          15 1 2 18 -1.</_>
        <_>
          15 7 2 6 3.</_></rects>
      <tilted>0</tilted></_>
    <_>
      <rects>
        <_>
          15 8 4 6 -1.</_>
        <_>
          17 8 2 6 2.</_></rects>
      <tilted>0</tilted></_>
    <_>
      <rects>
        <_>
          16 6 4 4 -1.</_>
        <_>
          18 6 2 4 2.</_></rects>
      <tilted>0</tilted></_></features></cascade>
</opencv_storage>
